<?xml version="1.0"?>
<opencv_storage>
<cascade>
  <stageType>BOOST</stageType>
  <featureType>HAAR</featureType>
  <height>30</height>
  <width>20</width>
  <stageParams>
    <boostType>GAB</boostType>
    <minHitRate>9.9000000953674316e-01</minHitRate>
    <maxFalseAlarm>5.0000000000000000e-01</maxFalseAlarm>
    <weightTrimRate>9.4999999999999996e-01</weightTrimRate>
    <maxDepth>1</maxDepth>
    <maxWeakCount>100</maxWeakCount></stageParams>
  <featureParams>
    <maxCatCount>0</maxCatCount>
    <featSize>1</featSize>
    <mode>ALL</mode></featureParams>
  <stageNum>18</stageNum>
  <stages>
    <!-- stage 0 -->
    <_>
      <maxWeakCount>4</maxWeakCount>
      <stageThreshold>-1.4614950418472290e+00</stageThreshold>
      <weakClassifiers>
        <_>
          <internalNodes>
            0 -1 12 -2.3416038602590561e-03</internalNodes>
          <leafValues>
            4.8688712716102600e-01 -8.6113405227661133e-01</leafValues></_>
        <_>
          <internalNodes>
            0 -1 113 -5.2840214222669601e-02</internalNodes>
          <leafValues>
            3.0824154615402222e-01 -8.5672092437744141e-01</leafValues></_>
        <_>
          <internalNodes>
            0 -1 56 6.1246864497661591e-03</internalNodes>
          <leafValues>
            -4.7445446252822876e-01 6.9950848817825317e-01</leafValues></_>
        <_>
          <internalNodes>
            0 -1 37 -1.8901571165770292e-03</internalNodes>
          <leafValues>
            7.3081439733505249e-01 -3.5825189948081970e-01</leafValues></_></weakClassifiers></_>
    <!-- stage 1 -->
    <_>
      <maxWeakCount>5</maxWeakCount>
      <stageThreshold>-1.7129700183868408e+00</stageThreshold>
      <weakClassifiers>
        <_>
          <internalNodes>
            0 -1 161 3.5881898365914822e-03</internalNodes>
          <leafValues>
            -8.2420092821121216e-01 3.4256926178932190e-01</leafValues></_>
        <_>
          <internalNodes>
            0 -1 141 -4.6377340331673622e-03</internalNodes>
          <leafValues>
            5.0824165344238281e-01 -6.1016160249710083e-01</leafValues></_>
        <_>
          <internalNodes>
            0 -1 3 4.5367861166596413e-03</internalNodes>
          <leafValues>
            -4.6120378375053406e-01 5.7264643907546997e-01</leafValues></_>
        <_>
          <internalNodes>
            0 -1 27 2.3957530502229929e-03</internalNodes>
          <leafValues>
            -4.9700358510017395e-01 5.1520007848739624e-01</leafValues></_>
        <_>
          <internalNodes>
            0 -1 154 4.9084713682532310e-03</internalNodes>
          <leafValues>
            -3.0294355750083923e-01 6.7959982156753540e-01</leafValues></_></weakClassifiers></_>
    <!-- stage 2 -->
    <_>
      <maxWeakCount>7</maxWeakCount>
      <stageThreshold>-1.6070475578308105e+00</stageThreshold>
      <weakClassifiers>
        <_>
          <internalNodes>
            0 -1 18 -5.0210399786010385e-04</internalNodes>
          <leafValues>
            1.6279070079326630e-01 -8.1836295127868652e-01</leafValues></_>
        <_>
          <internalNodes>
            0 -1 46 -2.5982886552810669e-01</internalNodes>
          <leafValues>
            2.3760937154293060e-01 -7.2158211469650269e-01</leafValues></_>
        <_>
          <internalNodes>
            0 -1 158 -1.0067331604659557e-03</internalNodes>
          <leafValues>
            4.3587350845336914e-01 -4.8823130130767822e-01</leafValues></_>
        <_>
          <internalNodes>
            0 -1 117 -1.6525484621524811e-02</internalNodes>
          <leafValues>
            6.2595725059509277e-01 -3.1759810447692871e-01</leafValues></_>
        <_>
          <internalNodes>
            0 -1 125 -3.1693256460130215e-05</internalNodes>
          <leafValues>
            5.4952919483184814e-01 -3.1442812085151672e-01</leafValues></_>
        <_>
          <internalNodes>
            0 -1 125 2.9217546398285776e-05</internalNodes>
          <leafValues>
            -2.6916512846946716e-01 5.6076520681381226e-01</leafValues></_>
        <_>
          <internalNodes>
            0 -1 132 3.1546202080789953e-05</internalNodes>
          <leafValues>
            -3.1663858890533447e-01 4.5836278796195984e-01</leafValues></_></weakClassifiers></_>
    <!-- stage 3 -->
    <_>
      <maxWeakCount>7</maxWeakCount>
      <stageThreshold>-1.6847870349884033e+00</stageThreshold>
      <weakClassifiers>
        <_>
          <internalNodes>
            0 -1 91 3.8056732155382633e-03</internalNodes>
          <leafValues>
            -8.0977720022201538e-01 9.6491225063800812e-02</leafValues></_>
        <_>
          <internalNodes>
            0 -1 7 3.0874731019139290e-03</internalNodes>
          <leafValues>
            -5.1148676872253418e-01 4.2400112748146057e-01</leafValues></_>
        <_>
          <internalNodes>
            0 -1 24 -1.2315567582845688e-02</internalNodes>
          <leafValues>
            5.8623439073562622e-01 -3.8200467824935913e-01</leafValues></_>
        <_>
          <internalNodes>
            0 -1 49 -1.6112145781517029e-01</internalNodes>
          <leafValues>
            2.5913497805595398e-01 -7.1708726882934570e-01</leafValues></_>
        <_>
          <internalNodes>
            0 -1 77 -5.9338370338082314e-03</internalNodes>
          <leafValues>
            4.8385867476463318e-01 -3.3644181489944458e-01</leafValues></_>
        <_>
          <internalNodes>
            0 -1 153 4.9099652096629143e-03</internalNodes>
          <leafValues>
            -3.2150134444236755e-01 5.2060598134994507e-01</leafValues></_>
        <_>
          <internalNodes>
            0 -1 161 2.2683390416204929e-03</internalNodes>
          <leafValues>
            -2.9461267590522766e-01 5.5140471458435059e-01</leafValues></_></weakClassifiers></_>
    <!-- stage 4 -->
    <_>
      <maxWeakCount>9</maxWeakCount>
      <stageThreshold>-2.1027307510375977e+00</stageThreshold>
      <weakClassifiers>
        <_>
          <internalNodes>
            0 -1 60 1.2410415336489677e-02</internalNodes>
          <leafValues>
            -8.0821919441223145e-01 1.3264128565788269e-01</leafValues></_>
        <_>
          <internalNodes>
            0 -1 14 -2.6590633206069469e-03</internalNodes>
          <leafValues>
            4.2639610171318054e-01 -4.8981082439422607e-01</leafValues></_>
        <_>
          <internalNodes>
            0 -1 137 -3.1516054150415584e-05</internalNodes>
          <leafValues>
            4.0800818800926208e-01 -3.9103710651397705e-01</leafValues></_>
        <_>
          <internalNodes>
            0 -1 45 -2.9608668759465218e-02</internalNodes>
          <leafValues>
            1.9095136225223541e-01 -7.8648817539215088e-01</leafValues></_>
        <_>
          <internalNodes>
            0 -1 16 4.5120851136744022e-03</internalNodes>
          <leafValues>
            -2.9378977417945862e-01 5.3624451160430908e-01</leafValues></_>
        <_>
          <internalNodes>
            0 -1 163 2.6587065804051235e-05</internalNodes>
          <leafValues>
            -3.2230418920516968e-01 4.3625605106353760e-01</leafValues></_>
        <_>
          <internalNodes>
            0 -1 108 -8.8585482444614172e-05</internalNodes>
          <leafValues>
            4.1550859808921814e-01 -3.3162784576416016e-01</leafValues></_>
        <_>
          <internalNodes>
            0 -1 20 -9.4671305269002914e-03</internalNodes>
          <leafValues>
            5.7778769731521606e-01 -2.3477804660797119e-01</leafValues></_>
        <_>
          <internalNodes>
            0 -1 140 -1.3692011125385761e-03</internalNodes>
          <leafValues>
            4.9861517548561096e-01 -2.5214943289756775e-01</leafValues></_></weakClassifiers></_>
    <!-- stage 5 -->
    <_>
      <maxWeakCount>9</maxWeakCount>
      <stageThreshold>-1.5526803731918335e+00</stageThreshold>
      <weakClassifiers>
        <_>
          <internalNodes>
            0 -1 47 -2.3108559846878052e-01</internalNodes>
          <leafValues>
            1.5812431275844574e-01 -8.1993675231933594e-01</leafValues></_>
        <_>
          <internalNodes>
            0 -1 129 4.1966676712036133e-02</internalNodes>
          <leafValues>
            -4.8845845460891724e-01 3.1641304492950439e-01</leafValues></_>
        <_>
          <internalNodes>
            0 -1 76 -1.1493313359096646e-03</internalNodes>
          <leafValues>
            -8.6317950487136841e-01 1.2732434272766113e-01</leafValues></_>
        <_>
          <internalNodes>
            0 -1 86 2.1422042045742273e-03</internalNodes>
          <leafValues>
            1.7486765980720520e-01 -8.3891016244888306e-01</leafValues></_>
        <_>
          <internalNodes>
            0 -1 19 -2.5262762792408466e-03</internalNodes>
          <leafValues>
            4.4452717900276184e-01 -2.6260635256767273e-01</leafValues></_>
        <_>
          <internalNodes>
            0 -1 101 -3.8986496627330780e-02</internalNodes>
          <leafValues>
            1.3414806127548218e-01 -8.9480435848236084e-01</leafValues></_>
        <_>
          <internalNodes>
            0 -1 58 2.8205036651343107e-03</internalNodes>
          <leafValues>
            -3.6669844388961792e-01 3.3745074272155762e-01</leafValues></_>
        <_>
          <internalNodes>
            0 -1 151 5.6274943053722382e-03</internalNodes>
          <leafValues>
            -2.2878198325634003e-01 5.1107978820800781e-01</leafValues></_>
        <_>
          <internalNodes>
            0 -1 156 -6.7633215803653002e-04</internalNodes>
          <leafValues>
            4.8709022998809814e-01 -2.3697106540203094e-01</leafValues></_></weakClassifiers></_>
    <!-- stage 6 -->
    <_>
      <maxWeakCount>8</maxWeakCount>
      <stageThreshold>-1.8773005008697510e+00</stageThreshold>
      <weakClassifiers>
        <_>
          <internalNodes>
            0 -1 35 -1.1087945848703384e-01</internalNodes>
          <leafValues>
            5.6200528144836426e-01 -7.6294487714767456e-01</leafValues></_>
        <_>
          <internalNodes>
            0 -1 94 -4.8013785271905363e-04</internalNodes>
          <leafValues>
            -8.7439519166946411e-01 2.1107590291649103e-03</leafValues></_>
        <_>
          <internalNodes>
            0 -1 109 -3.3876369707286358e-04</internalNodes>
          <leafValues>
            -9.0815579891204834e-01 9.7365073859691620e-02</leafValues></_>
        <_>
          <internalNodes>
            0 -1 109 2.6420800713822246e-04</internalNodes>
          <leafValues>
            1.5433783829212189e-01 -7.9439091682434082e-01</leafValues></_>
        <_>
          <internalNodes>
            0 -1 22 -1.8931500613689423e-02</internalNodes>
          <leafValues>
            4.4126960635185242e-01 -2.7359038591384888e-01</leafValues></_>
        <_>
          <internalNodes>
            0 -1 143 -2.7250709536019713e-05</internalNodes>
          <leafValues>
            3.2773011922836304e-01 -4.0479749441146851e-01</leafValues></_>
        <_>
          <internalNodes>
            0 -1 130 -5.1993496716022491e-02</internalNodes>
          <leafValues>
            3.6787474155426025e-01 -3.3604046702384949e-01</leafValues></_>
        <_>
          <internalNodes>
            0 -1 114 6.4672355074435472e-04</internalNodes>
          <leafValues>
            -3.5374093055725098e-01 3.5631462931632996e-01</leafValues></_></weakClassifiers></_>
    <!-- stage 7 -->
    <_>
      <maxWeakCount>5</maxWeakCount>
      <stageThreshold>-1.6364378929138184e+00</stageThreshold>
      <weakClassifiers>
        <_>
          <internalNodes>
            0 -1 34 -8.0881297588348389e-02</internalNodes>
          <leafValues>
            5.9504133462905884e-01 -7.8702265024185181e-01</leafValues></_>
        <_>
          <internalNodes>
            0 -1 85 1.3539735227823257e-03</internalNodes>
          <leafValues>
            6.5636605024337769e-02 -9.1673183441162109e-01</leafValues></_>
        <_>
          <internalNodes>
            0 -1 134 5.9386618435382843e-02</internalNodes>
          <leafValues>
            -3.3569711446762085e-01 7.3388570547103882e-01</leafValues></_>
        <_>
          <internalNodes>
            0 -1 73 1.1304345680400729e-03</internalNodes>
          <leafValues>
            2.2956213355064392e-01 -9.5440298318862915e-01</leafValues></_>
        <_>
          <internalNodes>
            0 -1 73 -7.4146914994344115e-04</internalNodes>
          <leafValues>
            -8.0891686677932739e-01 2.1334540843963623e-01</leafValues></_></weakClassifiers></_>
    <!-- stage 8 -->
    <_>
      <maxWeakCount>7</maxWeakCount>
      <stageThreshold>-1.9843798875808716e+00</stageThreshold>
      <weakClassifiers>
        <_>
          <internalNodes>
            0 -1 41 -4.1497626900672913e-01</internalNodes>
          <leafValues>
            -5.5021833628416061e-02 -8.1629472970962524e-01</leafValues></_>
        <_>
          <internalNodes>
            0 -1 43 1.3845288194715977e-02</internalNodes>
          <leafValues>
            -4.8526844382286072e-01 3.9382168650627136e-01</leafValues></_>
        <_>
          <internalNodes>
            0 -1 75 -2.2376714332494885e-04</internalNodes>
          <leafValues>
            -8.3456337451934814e-01 1.7960594594478607e-01</leafValues></_>
        <_>
          <internalNodes>
            0 -1 100 -8.1620604032650590e-04</internalNodes>
          <leafValues>
            -8.6033207178115845e-01 1.1661044508218765e-01</leafValues></_>
        <_>
          <internalNodes>
            0 -1 100 9.4777985941618681e-04</internalNodes>
          <leafValues>
            1.6138382256031036e-01 -8.4873497486114502e-01</leafValues></_>
        <_>
          <internalNodes>
            0 -1 135 -5.6941234506666660e-03</internalNodes>
          <leafValues>
            3.2750627398490906e-01 -3.5377109050750732e-01</leafValues></_>
        <_>
          <internalNodes>
            0 -1 165 -2.3119589604903013e-04</internalNodes>
          <leafValues>
            -7.8664577007293701e-01 1.5785388648509979e-01</leafValues></_></weakClassifiers></_>
    <!-- stage 9 -->
    <_>
      <maxWeakCount>10</maxWeakCount>
      <stageThreshold>-1.5955791473388672e+00</stageThreshold>
      <weakClassifiers>
        <_>
          <internalNodes>
            0 -1 36 -3.3937908709049225e-02</internalNodes>
          <leafValues>
            2.3643410205841064e-01 -7.6505458354949951e-01</leafValues></_>
        <_>
          <internalNodes>
            0 -1 69 -2.5789253413677216e-04</internalNodes>
          <leafValues>
            -8.8731986284255981e-01 -4.5473262667655945e-02</leafValues></_>
        <_>
          <internalNodes>
            0 -1 68 2.9972920310683548e-04</internalNodes>
          <leafValues>
            1.1912797391414642e-01 -7.5765931606292725e-01</leafValues></_>
        <_>
          <internalNodes>
            0 -1 67 8.0707017332315445e-03</internalNodes>
          <leafValues>
            -3.2729461789131165e-01 3.7591478228569031e-01</leafValues></_>
        <_>
          <internalNodes>
            0 -1 50 4.5833364129066467e-04</internalNodes>
          <leafValues>
            -3.3977684378623962e-01 3.9180243015289307e-01</leafValues></_>
        <_>
          <internalNodes>
            0 -1 21 -3.3507600426673889e-02</internalNodes>
          <leafValues>
            6.5472120046615601e-01 -2.0814396440982819e-01</leafValues></_>
        <_>
          <internalNodes>
            0 -1 102 -4.1409902041777968e-04</internalNodes>
          <leafValues>
            -7.4509811401367188e-01 1.6987687349319458e-01</leafValues></_>
        <_>
          <internalNodes>
            0 -1 11 4.8057055100798607e-03</internalNodes>
          <leafValues>
            -2.3197370767593384e-01 4.8752686381340027e-01</leafValues></_>
        <_>
          <internalNodes>
            0 -1 78 -4.3411972001194954e-03</internalNodes>
          <leafValues>
            -8.8832920789718628e-01 1.3858018815517426e-01</leafValues></_>
        <_>
          <internalNodes>
            0 -1 103 5.4767227265983820e-04</internalNodes>
          <leafValues>
            1.1849187314510345e-01 -6.9838929176330566e-01</leafValues></_></weakClassifiers></_>
    <!-- stage 10 -->
    <_>
      <maxWeakCount>11</maxWeakCount>
      <stageThreshold>-1.6782288551330566e+00</stageThreshold>
      <weakClassifiers>
        <_>
          <internalNodes>
            0 -1 9 1.2196414172649384e-02</internalNodes>
          <leafValues>
            -7.6517570018768311e-01 1.2012012302875519e-02</leafValues></_>
        <_>
          <internalNodes>
            0 -1 145 3.3694662153720856e-02</internalNodes>
          <leafValues>
            -3.7727877497673035e-01 4.4335314631462097e-01</leafValues></_>
        <_>
          <internalNodes>
            0 -1 144 -2.2539945784956217e-03</internalNodes>
          <leafValues>
            3.4913209080696106e-01 -4.2547637224197388e-01</leafValues></_>
        <_>
          <internalNodes>
            0 -1 48 -2.7398097515106201e-01</internalNodes>
          <leafValues>
            4.0661671757698059e-01 -3.1794598698616028e-01</leafValues></_>
        <_>
          <internalNodes>
            0 -1 104 -5.4609531071037054e-04</internalNodes>
          <leafValues>
            -5.3717797994613647e-01 2.4577285349369049e-01</leafValues></_>
        <_>
          <internalNodes>
            0 -1 26 -7.1625364944338799e-03</internalNodes>
          <leafValues>
            4.1237941384315491e-01 -2.3698408901691437e-01</leafValues></_>
        <_>
          <internalNodes>
            0 -1 59 1.2629475677385926e-03</internalNodes>
          <leafValues>
            -2.7206507325172424e-01 3.7605789303779602e-01</leafValues></_>
        <_>
          <internalNodes>
            0 -1 95 -1.9662119448184967e-02</internalNodes>
          <leafValues>
            4.1634058952331543e-01 -2.3972983658313751e-01</leafValues></_>
        <_>
          <internalNodes>
            0 -1 28 -6.8883754312992096e-02</internalNodes>
          <leafValues>
            6.4289426803588867e-01 -1.6450658440589905e-01</leafValues></_>
        <_>
          <internalNodes>
            0 -1 87 -2.3587810574099422e-04</internalNodes>
          <leafValues>
            -7.7209126949310303e-01 1.4997950196266174e-01</leafValues></_>
        <_>
          <internalNodes>
            0 -1 74 1.7215859843418002e-03</internalNodes>
          <leafValues>
            8.5400544106960297e-02 -7.5714671611785889e-01</leafValues></_></weakClassifiers></_>
    <!-- stage 11 -->
    <_>
      <maxWeakCount>11</maxWeakCount>
      <stageThreshold>-1.6760203838348389e+00</stageThreshold>
      <weakClassifiers>
        <_>
          <internalNodes>
            0 -1 13 -2.9003890231251717e-03</internalNodes>
          <leafValues>
            -8.6527928709983826e-02 -7.8213870525360107e-01</leafValues></_>
        <_>
          <internalNodes>
            0 -1 120 1.3470582198351622e-03</internalNodes>
          <leafValues>
            -4.8306933045387268e-01 2.7807119488716125e-01</leafValues></_>
        <_>
          <internalNodes>
            0 -1 90 3.0184118077158928e-04</internalNodes>
          <leafValues>
            -3.3368209004402161e-01 2.8862592577934265e-01</leafValues></_>
        <_>
          <internalNodes>
            0 -1 30 1.0024341754615307e-03</internalNodes>
          <leafValues>
            1.1516411602497101e-01 -8.1697630882263184e-01</leafValues></_>
        <_>
          <internalNodes>
            0 -1 133 -1.1462232796475291e-03</internalNodes>
          <leafValues>
            -7.9707509279251099e-01 1.2855982780456543e-01</leafValues></_>
        <_>
          <internalNodes>
            0 -1 150 6.0697516892105341e-04</internalNodes>
          <leafValues>
            -3.3787178993225098e-01 2.9604557156562805e-01</leafValues></_>
        <_>
          <internalNodes>
            0 -1 105 8.5681183263659477e-03</internalNodes>
          <leafValues>
            9.7301527857780457e-02 -9.1393578052520752e-01</leafValues></_>
        <_>
          <internalNodes>
            0 -1 6 1.4617466367781162e-03</internalNodes>
          <leafValues>
            -3.0399689078330994e-01 2.7278089523315430e-01</leafValues></_>
        <_>
          <internalNodes>
            0 -1 146 -2.2823993116617203e-02</internalNodes>
          <leafValues>
            4.8878088593482971e-01 -2.2625903785228729e-01</leafValues></_>
        <_>
          <internalNodes>
            0 -1 80 4.6625211834907532e-03</internalNodes>
          <leafValues>
            9.7157344222068787e-02 -8.5275441408157349e-01</leafValues></_>
        <_>
          <internalNodes>
            0 -1 92 -9.1922294814139605e-04</internalNodes>
          <leafValues>
            -8.1328737735748291e-01 8.5869267582893372e-02</leafValues></_></weakClassifiers></_>
    <!-- stage 12 -->
    <_>
      <maxWeakCount>11</maxWeakCount>
      <stageThreshold>-1.6760244369506836e+00</stageThreshold>
      <weakClassifiers>
        <_>
          <internalNodes>
            0 -1 64 1.0164471343159676e-02</internalNodes>
          <leafValues>
            -7.7313733100891113e-01 -1.6382978856563568e-01</leafValues></_>
        <_>
          <internalNodes>
            0 -1 159 -1.6635427018627524e-03</internalNodes>
          <leafValues>
            1.5491187572479248e-01 -4.7204279899597168e-01</leafValues></_>
        <_>
          <internalNodes>
            0 -1 93 -1.2746673077344894e-02</internalNodes>
          <leafValues>
            9.6243932843208313e-02 -7.9008740186691284e-01</leafValues></_>
        <_>
          <internalNodes>
            0 -1 149 8.4228739142417908e-03</internalNodes>
          <leafValues>
            -2.8512912988662720e-01 3.6957827210426331e-01</leafValues></_>
        <_>
          <internalNodes>
            0 -1 53 -9.5747616142034531e-03</internalNodes>
          <leafValues>
            -3.2416120171546936e-01 3.1347480416297913e-01</leafValues></_>
        <_>
          <internalNodes>
            0 -1 81 2.3940163664519787e-03</internalNodes>
          <leafValues>
            -2.9026651382446289e-01 3.4948271512985229e-01</leafValues></_>
        <_>
          <internalNodes>
            0 -1 55 4.7085052938200533e-04</internalNodes>
          <leafValues>
            2.0287941396236420e-01 -5.9877574443817139e-01</leafValues></_>
        <_>
          <internalNodes>
            0 -1 1 8.3965957164764404e-03</internalNodes>
          <leafValues>
            -2.5942251086235046e-01 3.2824981212615967e-01</leafValues></_>
        <_>
          <internalNodes>
            0 -1 25 -3.8541404064744711e-03</internalNodes>
          <leafValues>
            3.5747772455215454e-01 -2.7326923608779907e-01</leafValues></_>
        <_>
          <internalNodes>
            0 -1 23 3.6117327399551868e-03</internalNodes>
          <leafValues>
            -1.6412627696990967e-01 5.9192359447479248e-01</leafValues></_>
        <_>
          <internalNodes>
            0 -1 107 9.2615757603198290e-04</internalNodes>
          <leafValues>
            1.2563590705394745e-01 -8.4937739372253418e-01</leafValues></_></weakClassifiers></_>
    <!-- stage 13 -->
    <_>
      <maxWeakCount>12</maxWeakCount>
      <stageThreshold>-1.5954265594482422e+00</stageThreshold>
      <weakClassifiers>
        <_>
          <internalNodes>
            0 -1 4 6.0471884906291962e-02</internalNodes>
          <leafValues>
            -7.3660445213317871e-01 3.9716312289237976e-01</leafValues></_>
        <_>
          <internalNodes>
            0 -1 71 6.6045974381268024e-04</internalNodes>
          <leafValues>
            -4.1376852989196777e-01 2.8295731544494629e-01</leafValues></_>
        <_>
          <internalNodes>
            0 -1 31 2.3304983042180538e-03</internalNodes>
          <leafValues>
            -3.8363635540008545e-01 2.5860038399696350e-01</leafValues></_>
        <_>
          <internalNodes>
            0 -1 2 -2.3239938914775848e-01</internalNodes>
          <leafValues>
            1.7087161540985107e-01 -6.0502791404724121e-01</leafValues></_>
        <_>
          <internalNodes>
            0 -1 139 4.2385132983326912e-03</internalNodes>
          <leafValues>
            1.5017777681350708e-01 -7.1661967039108276e-01</leafValues></_>
        <_>
          <internalNodes>
            0 -1 123 3.5230600042268634e-04</internalNodes>
          <leafValues>
            1.0074707120656967e-01 -7.3115020990371704e-01</leafValues></_>
        <_>
          <internalNodes>
            0 -1 122 -1.8447019101586193e-04</internalNodes>
          <leafValues>
            -6.6894108057022095e-01 1.2612830102443695e-01</leafValues></_>
        <_>
          <internalNodes>
            0 -1 17 -4.5311074703931808e-02</internalNodes>
          <leafValues>
            5.0777852535247803e-01 -1.8057815730571747e-01</leafValues></_>
        <_>
          <internalNodes>
            0 -1 51 2.9797395691275597e-02</internalNodes>
          <leafValues>
            1.4029353857040405e-01 -6.8272435665130615e-01</leafValues></_>
        <_>
          <internalNodes>
            0 -1 63 -1.1980360373854637e-02</internalNodes>
          <leafValues>
            -8.6738294363021851e-01 7.3234707117080688e-02</leafValues></_>
        <_>
          <internalNodes>
            0 -1 166 -3.3805117709562182e-04</internalNodes>
          <leafValues>
            -8.4392774105072021e-01 7.1611553430557251e-02</leafValues></_>
        <_>
          <internalNodes>
            0 -1 33 3.3147953217849135e-05</internalNodes>
          <leafValues>
            -2.7342712879180908e-01 2.9877483844757080e-01</leafValues></_></weakClassifiers></_>
    <!-- stage 14 -->
    <_>
      <maxWeakCount>15</maxWeakCount>
      <stageThreshold>-1.5694361925125122e+00</stageThreshold>
      <weakClassifiers>
        <_>
          <internalNodes>
            0 -1 70 3.9613498374819756e-03</internalNodes>
          <leafValues>
            -7.9513633251190186e-01 -3.1108143925666809e-01</leafValues></_>
        <_>
          <internalNodes>
            0 -1 138 7.2631763760000467e-04</internalNodes>
          <leafValues>
            -4.6491625905036926e-01 1.2993316352367401e-01</leafValues></_>
        <_>
          <internalNodes>
            0 -1 44 -4.2454552021808922e-04</internalNodes>
          <leafValues>
            3.9137685298919678e-01 -2.1870131790637970e-01</leafValues></_>
        <_>
          <internalNodes>
            0 -1 97 -6.8875309079885483e-04</internalNodes>
          <leafValues>
            3.2182568311691284e-01 -2.3721148073673248e-01</leafValues></_>
        <_>
          <internalNodes>
            0 -1 83 -1.9360996084287763e-03</internalNodes>
          <leafValues>
            -8.4836381673812866e-01 9.4214476644992828e-02</leafValues></_>
        <_>
          <internalNodes>
            0 -1 40 3.6848583258688450e-03</internalNodes>
          <leafValues>
            -3.2062003016471863e-01 2.3799611628055573e-01</leafValues></_>
        <_>
          <internalNodes>
            0 -1 84 3.9959262358024716e-04</internalNodes>
          <leafValues>
            -3.2574626803398132e-01 2.2673027217388153e-01</leafValues></_>
        <_>
          <internalNodes>
            0 -1 142 -1.8006384372711182e-02</internalNodes>
          <leafValues>
            -8.4188312292098999e-01 1.1297745257616043e-01</leafValues></_>
        <_>
          <internalNodes>
            0 -1 121 3.1478714663535357e-04</internalNodes>
          <leafValues>
            1.2192230671644211e-01 -6.0862219333648682e-01</leafValues></_>
        <_>
          <internalNodes>
            0 -1 54 8.1775467842817307e-03</internalNodes>
          <leafValues>
            -4.0071105957031250e-01 1.8961612880229950e-01</leafValues></_>
        <_>
          <internalNodes>
            0 -1 88 7.8362509608268738e-02</internalNodes>
          <leafValues>
            1.0964956879615784e-01 -7.9582434892654419e-01</leafValues></_>
        <_>
          <internalNodes>
            0 -1 52 -4.5308226346969604e-01</internalNodes>
          <leafValues>
            7.6742541790008545e-01 -1.2956571578979492e-01</leafValues></_>
        <_>
          <internalNodes>
            0 -1 42 -2.7170807123184204e-01</internalNodes>
          <leafValues>
            2.1445208787918091e-01 -3.9417427778244019e-01</leafValues></_>
        <_>
          <internalNodes>
            0 -1 8 1.5389313921332359e-03</internalNodes>
          <leafValues>
            -2.5941395759582520e-01 2.9912367463111877e-01</leafValues></_>
        <_>
          <internalNodes>
            0 -1 15 -3.7864036858081818e-03</internalNodes>
          <leafValues>
            4.4252008199691772e-01 -2.0621708035469055e-01</leafValues></_></weakClassifiers></_>
    <!-- stage 15 -->
    <_>
      <maxWeakCount>15</maxWeakCount>
      <stageThreshold>-1.6537300348281860e+00</stageThreshold>
      <weakClassifiers>
        <_>
          <internalNodes>
            0 -1 148 -3.9752954617142677e-03</internalNodes>
          <leafValues>
            -1.5764705836772919e-01 -7.6497697830200195e-01</leafValues></_>
        <_>
          <internalNodes>
            0 -1 89 -7.5690518133342266e-04</internalNodes>
          <leafValues>
            1.7096143960952759e-01 -4.6285948157310486e-01</leafValues></_>
        <_>
          <internalNodes>
            0 -1 119 7.8098149970173836e-04</internalNodes>
          <leafValues>
            -2.3918937146663666e-01 3.4715479612350464e-01</leafValues></_>
        <_>
          <internalNodes>
            0 -1 160 2.8973496519029140e-03</internalNodes>
          <leafValues>
            -1.9565428793430328e-01 4.0104955434799194e-01</leafValues></_>
        <_>
          <internalNodes>
            0 -1 57 3.5839510383084416e-04</internalNodes>
          <leafValues>
            1.2793380022048950e-01 -6.4208739995956421e-01</leafValues></_>
        <_>
          <internalNodes>
            0 -1 57 -3.7069787504151464e-04</internalNodes>
          <leafValues>
            -6.2268602848052979e-01 1.6718769073486328e-01</leafValues></_>
        <_>
          <internalNodes>
            0 -1 155 4.0254490450024605e-03</internalNodes>
          <leafValues>
            -2.9419511556625366e-01 2.6712104678153992e-01</leafValues></_>
        <_>
          <internalNodes>
            0 -1 65 3.4086711821146309e-05</internalNodes>
          <leafValues>
            -2.8182399272918701e-01 2.7116909623146057e-01</leafValues></_>
        <_>
          <internalNodes>
            0 -1 39 -3.1181894242763519e-02</internalNodes>
          <leafValues>
            -8.6064392328262329e-01 7.7102072536945343e-02</leafValues></_>
        <_>
          <internalNodes>
            0 -1 61 3.4077213058480993e-05</internalNodes>
          <leafValues>
            -2.4883824586868286e-01 2.9614964127540588e-01</leafValues></_>
        <_>
          <internalNodes>
            0 -1 32 -5.6830987334251404e-02</internalNodes>
          <leafValues>
            4.0536507964134216e-01 -1.8692390620708466e-01</leafValues></_>
        <_>
          <internalNodes>
            0 -1 38 -6.6079506650567055e-03</internalNodes>
          <leafValues>
            2.9725551605224609e-01 -2.5113368034362793e-01</leafValues></_>
        <_>
          <internalNodes>
            0 -1 98 5.0097733037546277e-04</internalNodes>
          <leafValues>
            8.7513774633407593e-02 -8.3656764030456543e-01</leafValues></_>
        <_>
          <internalNodes>
            0 -1 0 4.2887562885880470e-03</internalNodes>
          <leafValues>
            -2.5025722384452820e-01 3.2599911093711853e-01</leafValues></_>
        <_>
          <internalNodes>
            0 -1 110 -1.1890415102243423e-02</internalNodes>
          <leafValues>
            2.0588843524456024e-01 -3.0830070376396179e-01</leafValues></_></weakClassifiers></_>
    <!-- stage 16 -->
    <_>
      <maxWeakCount>14</maxWeakCount>
      <stageThreshold>-1.6034983396530151e+00</stageThreshold>
      <weakClassifiers>
        <_>
          <internalNodes>
            0 -1 62 -1.8681260943412781e-01</internalNodes>
          <leafValues>
            4.1708543896675110e-01 -7.2320497035980225e-01</leafValues></_>
        <_>
          <internalNodes>
            0 -1 126 -5.5490416707471013e-04</internalNodes>
          <leafValues>
            2.0639431476593018e-01 -4.4022685289382935e-01</leafValues></_>
        <_>
          <internalNodes>
            0 -1 66 3.5865986719727516e-03</internalNodes>
          <leafValues>
            -2.3513741791248322e-01 3.8627073168754578e-01</leafValues></_>
        <_>
          <internalNodes>
            0 -1 164 2.2932379506528378e-03</internalNodes>
          <leafValues>
            9.1379746794700623e-02 -8.6210465431213379e-01</leafValues></_>
        <_>
          <internalNodes>
            0 -1 162 -5.0329975783824921e-04</internalNodes>
          <leafValues>
            -5.4317146539688110e-01 1.4708454906940460e-01</leafValues></_>
        <_>
          <internalNodes>
            0 -1 112 -1.1038118973374367e-02</internalNodes>
          <leafValues>
            2.6494523882865906e-01 -2.6336914300918579e-01</leafValues></_>
        <_>
          <internalNodes>
            0 -1 72 -1.4092300552874804e-03</internalNodes>
          <leafValues>
            4.6491980552673340e-01 -1.7894119024276733e-01</leafValues></_>
        <_>
          <internalNodes>
            0 -1 99 1.8567235674709082e-03</internalNodes>
          <leafValues>
            9.6103072166442871e-02 -8.1294178962707520e-01</leafValues></_>
        <_>
          <internalNodes>
            0 -1 136 -3.8086180575191975e-03</internalNodes>
          <leafValues>
            2.4736815690994263e-01 -2.8682187199592590e-01</leafValues></_>
        <_>
          <internalNodes>
            0 -1 116 6.9174962118268013e-03</internalNodes>
          <leafValues>
            7.3279075324535370e-02 -9.0882760286331177e-01</leafValues></_>
        <_>
          <internalNodes>
            0 -1 106 -2.1033853292465210e-02</internalNodes>
          <leafValues>
            3.9351847767829895e-01 -1.7373542487621307e-01</leafValues></_>
        <_>
          <internalNodes>
            0 -1 124 -6.0773072764277458e-03</internalNodes>
          <leafValues>
            -8.0703467130661011e-01 9.0874381363391876e-02</leafValues></_>
        <_>
          <internalNodes>
            0 -1 79 3.5448127891868353e-03</internalNodes>
          <leafValues>
            -3.4273713827133179e-01 1.9048483669757843e-01</leafValues></_>
        <_>
          <internalNodes>
            0 -1 96 -3.0613553244620562e-03</internalNodes>
          <leafValues>
            -9.1842526197433472e-01 7.6257482171058655e-02</leafValues></_></weakClassifiers></_>
    <!-- stage 17 -->
    <_>
      <maxWeakCount>16</maxWeakCount>
      <stageThreshold>-1.7388005256652832e+00</stageThreshold>
      <weakClassifiers>
        <_>
          <internalNodes>
            0 -1 18 -1.0166806168854237e-03</internalNodes>
          <leafValues>
            -2.6813367009162903e-01 -7.8136515617370605e-01</leafValues></_>
        <_>
          <internalNodes>
            0 -1 127 6.9889845326542854e-04</internalNodes>
          <leafValues>
            -4.0431514382362366e-01 2.2898089885711670e-01</leafValues></_>
        <_>
          <internalNodes>
            0 -1 128 -7.4184448749292642e-05</internalNodes>
          <leafValues>
            2.2597584128379822e-01 -3.1175372004508972e-01</leafValues></_>
        <_>
          <internalNodes>
            0 -1 29 1.1427716817706823e-03</internalNodes>
          <leafValues>
            9.0644530951976776e-02 -6.8611711263656616e-01</leafValues></_>
        <_>
          <internalNodes>
            0 -1 131 3.1263654818758368e-05</internalNodes>
          <leafValues>
            -2.5419619679450989e-01 2.4875144660472870e-01</leafValues></_>
        <_>
          <internalNodes>
            0 -1 115 2.1594983991235495e-04</internalNodes>
          <leafValues>
            8.2259766757488251e-02 -7.1465814113616943e-01</leafValues></_>
        <_>
          <internalNodes>
            0 -1 152 -4.1809175163507462e-03</internalNodes>
          <leafValues>
            3.0121737718582153e-01 -2.1074724197387695e-01</leafValues></_>
        <_>
          <internalNodes>
            0 -1 118 3.6379560828208923e-02</internalNodes>
          <leafValues>
            -1.8810825049877167e-01 3.8922321796417236e-01</leafValues></_>
        <_>
          <internalNodes>
            0 -1 167 -2.8108626138418913e-03</internalNodes>
          <leafValues>
            2.8555679321289062e-01 -2.3964039981365204e-01</leafValues></_>
        <_>
          <internalNodes>
            0 -1 157 -1.5083984471857548e-03</internalNodes>
          <leafValues>
            5.0772821903228760e-01 -1.5571576356887817e-01</leafValues></_>
        <_>
          <internalNodes>
            0 -1 111 3.7091395352035761e-03</internalNodes>
          <leafValues>
            -3.3926454186439514e-01 2.0954234898090363e-01</leafValues></_>
        <_>
          <internalNodes>
            0 -1 147 -7.3079718276858330e-04</internalNodes>
          <leafValues>
            3.0626618862152100e-01 -1.9530777633190155e-01</leafValues></_>
        <_>
          <internalNodes>
            0 -1 10 7.1465352084487677e-04</internalNodes>
          <leafValues>
            -2.0042490959167480e-01 3.2737553119659424e-01</leafValues></_>
        <_>
          <internalNodes>
            0 -1 168 -8.6775794625282288e-04</internalNodes>
          <leafValues>
            -8.4675949811935425e-01 7.4412837624549866e-02</leafValues></_>
        <_>
          <internalNodes>
            0 -1 82 1.1955827940255404e-03</internalNodes>
          <leafValues>
            7.0202007889747620e-02 -6.4668542146682739e-01</leafValues></_>
        <_>
          <internalNodes>
            0 -1 5 -1.0781639721244574e-03</internalNodes>
          <leafValues>
            6.0839426517486572e-01 -1.0922268033027649e-01</leafValues></_></weakClassifiers></_></stages>
  <features>
    <_>
      <rects>
        <_>
          0 0 2 10 -1.</_>
        <_>
          1 0 1 10 2.</_></rects>
      <tilted>0</tilted></_>
    <_>
      <rects>
        <_>
          0 0 4 10 -1.</_>
        <_>
          2 0 2 10 2.</_></rects>
      <tilted>0</tilted></_>
    <_>
      <rects>
        <_>
          0 0 18 24 -1.</_>
        <_>
          0 12 18 12 2.</_></rects>
      <tilted>0</tilted></_>
    <_>
      <rects>
        <_>
          0 0 20 2 -1.</_>
        <_>
          0 1 20 1 2.</_></rects>
      <tilted>0</tilted></_>
    <_>
      <rects>
        <_>
          0 0 20 3 -1.</_>
        <_>
          0 1 20 1 3.</_></rects>
      <tilted>0</tilted></_>
    <_>
      <rects>
        <_>
          0 1 2 2 -1.</_>
        <_>
          0 1 1 1 2.</_>
        <_>
          1 2 1 1 2.</_></rects>
      <tilted>0</tilted></_>
    <_>
      <rects>
        <_>
          0 1 2 5 -1.</_>
        <_>
          1 1 1 5 2.</_></rects>
      <tilted>0</tilted></_>
    <_>
      <rects>
        <_>
          0 1 2 6 -1.</_>
        <_>
          1 1 1 6 2.</_></rects>
      <tilted>0</tilted></_>
    <_>
      <rects>
        <_>
          0 1 3 7 -1.</_>
        <_>
          1 1 1 7 3.</_></rects>
      <tilted>0</tilted></_>
    <_>
      <rects>
        <_>
          0 1 2 13 -1.</_>
        <_>
          1 1 1 13 2.</_></rects>
      <tilted>0</tilted></_>
    <_>
      <rects>
        <_>
          0 1 4 2 -1.</_>
        <_>
          0 1 2 1 2.</_>
        <_>
          2 2 2 1 2.</_></rects>
      <tilted>0</tilted></_>
    <_>
      <rects>
        <_>
          0 2 2 6 -1.</_>
        <_>
          1 2 1 6 2.</_></rects>
      <tilted>0</tilted></_>
    <_>
      <rects>
        <_>
          0 3 2 8 -1.</_>
        <_>
          0 3 1 4 2.</_>
        <_>
          1 7 1 4 2.</_></rects>
      <tilted>0</tilted></_>
    <_>
      <rects>
        <_>
          0 4 2 4 -1.</_>
        <_>
          0 4 1 2 2.</_>
        <_>
          1 6 1 2 2.</_></rects>
      <tilted>0</tilted></_>
    <_>
      <rects>
        <_>
          0 4 2 6 -1.</_>
        <_>
          0 4 1 3 2.</_>
        <_>
          1 7 1 3 2.</_></rects>
      <tilted>0</tilted></_>
    <_>
      <rects>
        <_>
          0 4 4 10 -1.</_>
        <_>
          1 4 2 10 2.</_></rects>
      <tilted>0</tilted></_>
    <_>
      <rects>
        <_>
          0 4 3 19 -1.</_>
        <_>
          1 4 1 19 3.</_></rects>
      <tilted>0</tilted></_>
    <_>
      <rects>
        <_>
          0 4 4 20 -1.</_>
        <_>
          2 4 2 20 2.</_></rects>
      <tilted>0</tilted></_>
    <_>
      <rects>
        <_>
          0 5 2 2 -1.</_>
        <_>
          0 5 1 1 2.</_>
        <_>
          1 6 1 1 2.</_></rects>
      <tilted>0</tilted></_>
    <_>
      <rects>
        <_>
          0 5 2 6 -1.</_>
        <_>
          0 5 1 3 2.</_>
        <_>
          1 8 1 3 2.</_></rects>
      <tilted>0</tilted></_>
    <_>
      <rects>
        <_>
          0 5 4 24 -1.</_>
        <_>
          1 5 2 24 2.</_></rects>
      <tilted>0</tilted></_>
    <_>
      <rects>
        <_>
          0 10 4 10 -1.</_>
        <_>
          2 10 2 10 2.</_></rects>
      <tilted>0</tilted></_>
    <_>
      <rects>
        <_>
          0 11 4 12 -1.</_>
        <_>
          2 11 2 12 2.</_></rects>
      <tilted>0</tilted></_>
    <_>
      <rects>
        <_>
          0 12 4 3 -1.</_>
        <_>
          2 12 2 3 2.</_></rects>
      <tilted>0</tilted></_>
    <_>
      <rects>
        <_>
          0 12 4 7 -1.</_>
        <_>
          2 12 2 7 2.</_></rects>
      <tilted>0</tilted></_>
    <_>
      <rects>
        <_>
          0 13 8 2 -1.</_>
        <_>
          2 13 4 2 2.</_></rects>
      <tilted>0</tilted></_>
    <_>
      <rects>
        <_>
          0 16 4 5 -1.</_>
        <_>
          2 16 2 5 2.</_></rects>
      <tilted>0</tilted></_>
    <_>
      <rects>
        <_>
          0 19 6 8 -1.</_>
        <_>
          0 19 3 4 2.</_>
        <_>
          3 23 3 4 2.</_></rects>
      <tilted>0</tilted></_>
    <_>
      <rects>
        <_>
          0 22 20 5 -1.</_>
        <_>
          5 22 10 5 2.</_></rects>
      <tilted>0</tilted></_>
    <_>
      <rects>
        <_>
          0 26 2 4 -1.</_>
        <_>
          0 27 2 2 2.</_></rects>
      <tilted>0</tilted></_>
    <_>
      <rects>
        <_>
          0 27 2 3 -1.</_>
        <_>
          0 28 2 1 3.</_></rects>
      <tilted>0</tilted></_>
    <_>
      <rects>
        <_>
          1 0 4 4 -1.</_>
        <_>
          1 2 4 2 2.</_></rects>
      <tilted>0</tilted></_>
    <_>
      <rects>
        <_>
          1 1 6 8 -1.</_>
        <_>
          1 5 6 4 2.</_></rects>
      <tilted>0</tilted></_>
    <_>
      <rects>
        <_>
          1 4 16 2 -1.</_>
        <_>
          1 5 16 1 2.</_></rects>
      <tilted>0</tilted></_>
    <_>
      <rects>
        <_>
          1 4 17 4 -1.</_>
        <_>
          1 6 17 2 2.</_></rects>
      <tilted>0</tilted></_>
    <_>
      <rects>
        <_>
          1 4 18 4 -1.</_>
        <_>
          1 6 18 2 2.</_></rects>
      <tilted>0</tilted></_>
    <_>
      <rects>
        <_>
          1 5 17 4 -1.</_>
        <_>
          1 6 17 2 2.</_></rects>
      <tilted>0</tilted></_>
    <_>
      <rects>
        <_>
          1 12 4 6 -1.</_>
        <_>
          2 12 2 6 2.</_></rects>
      <tilted>0</tilted></_>
    <_>
      <rects>
        <_>
          1 16 6 6 -1.</_>
        <_>
          3 16 2 6 3.</_></rects>
      <tilted>0</tilted></_>
    <_>
      <rects>
        <_>
          1 19 7 9 -1.</_>
        <_>
          1 22 7 3 3.</_></rects>
      <tilted>0</tilted></_>
    <_>
      <rects>
        <_>
          1 20 6 8 -1.</_>
        <_>
          1 20 3 4 2.</_>
        <_>
          4 24 3 4 2.</_></rects>
      <tilted>0</tilted></_>
    <_>
      <rects>
        <_>
          2 0 15 28 -1.</_>
        <_>
          2 7 15 14 2.</_></rects>
      <tilted>0</tilted></_>
    <_>
      <rects>
        <_>
          2 0 16 18 -1.</_>
        <_>
          2 9 16 9 2.</_></rects>
      <tilted>0</tilted></_>
    <_>
      <rects>
        <_>
          2 0 17 2 -1.</_>
        <_>
          2 1 17 1 2.</_></rects>
      <tilted>0</tilted></_>
    <_>
      <rects>
        <_>
          2 1 1 3 -1.</_>
        <_>
          2 2 1 1 3.</_></rects>
      <tilted>0</tilted></_>
    <_>
      <rects>
        <_>
          2 1 5 20 -1.</_>
        <_>
          2 11 5 10 2.</_></rects>
      <tilted>0</tilted></_>
    <_>
      <rects>
        <_>
          2 1 15 27 -1.</_>
        <_>
          2 10 15 9 3.</_></rects>
      <tilted>0</tilted></_>
    <_>
      <rects>
        <_>
          2 1 16 10 -1.</_>
        <_>
          2 6 16 5 2.</_></rects>
      <tilted>0</tilted></_>
    <_>
      <rects>
        <_>
          2 1 16 21 -1.</_>
        <_>
          2 8 16 7 3.</_></rects>
      <tilted>0</tilted></_>
    <_>
      <rects>
        <_>
          2 1 18 22 -1.</_>
        <_>
          2 12 18 11 2.</_></rects>
      <tilted>0</tilted></_>
    <_>
      <rects>
        <_>
          2 2 12 2 -1.</_>
        <_>
          2 3 12 1 2.</_></rects>
      <tilted>0</tilted></_>
    <_>
      <rects>
        <_>
          2 6 16 10 -1.</_>
        <_>
          2 6 8 5 2.</_>
        <_>
          10 11 8 5 2.</_></rects>
      <tilted>0</tilted></_>
    <_>
      <rects>
        <_>
          2 7 17 20 -1.</_>
        <_>
          2 17 17 10 2.</_></rects>
      <tilted>0</tilted></_>
    <_>
      <rects>
        <_>
          2 9 15 6 -1.</_>
        <_>
          2 12 15 3 2.</_></rects>
      <tilted>0</tilted></_>
    <_>
      <rects>
        <_>
          2 14 14 12 -1.</_>
        <_>
          2 20 14 6 2.</_></rects>
      <tilted>0</tilted></_>
    <_>
      <rects>
        <_>
          2 27 1 2 -1.</_>
        <_>
          2 27 1 1 2.</_></rects>
      <tilted>1</tilted></_>
    <_>
      <rects>
        <_>
          3 0 14 3 -1.</_>
        <_>
          3 1 14 1 3.</_></rects>
      <tilted>0</tilted></_>
    <_>
      <rects>
        <_>
          3 4 3 2 -1.</_>
        <_>
          4 4 1 2 3.</_></rects>
      <tilted>0</tilted></_>
    <_>
      <rects>
        <_>
          3 20 7 3 -1.</_>
        <_>
          2 21 7 1 3.</_></rects>
      <tilted>1</tilted></_>
    <_>
      <rects>
        <_>
          4 0 2 4 -1.</_>
        <_>
          4 1 2 2 2.</_></rects>
      <tilted>0</tilted></_>
    <_>
      <rects>
        <_>
          4 0 11 3 -1.</_>
        <_>
          4 1 11 1 3.</_></rects>
      <tilted>0</tilted></_>
    <_>
      <rects>
        <_>
          4 4 6 2 -1.</_>
        <_>
          4 5 6 1 2.</_></rects>
      <tilted>0</tilted></_>
    <_>
      <rects>
        <_>
          4 13 11 12 -1.</_>
        <_>
          4 19 11 6 2.</_></rects>
      <tilted>0</tilted></_>
    <_>
      <rects>
        <_>
          4 23 10 6 -1.</_>
        <_>
          4 23 5 3 2.</_>
        <_>
          9 26 5 3 2.</_></rects>
      <tilted>0</tilted></_>
    <_>
      <rects>
        <_>
          4 26 11 3 -1.</_>
        <_>
          4 27 11 1 3.</_></rects>
      <tilted>0</tilted></_>
    <_>
      <rects>
        <_>
          5 0 2 2 -1.</_>
        <_>
          6 0 1 2 2.</_></rects>
      <tilted>0</tilted></_>
    <_>
      <rects>
        <_>
          5 0 3 3 -1.</_>
        <_>
          5 1 3 1 3.</_></rects>
      <tilted>0</tilted></_>
    <_>
      <rects>
        <_>
          5 0 14 4 -1.</_>
        <_>
          5 1 14 2 2.</_></rects>
      <tilted>0</tilted></_>
    <_>
      <rects>
        <_>
          5 3 3 2 -1.</_>
        <_>
          6 3 1 2 3.</_></rects>
      <tilted>0</tilted></_>
    <_>
      <rects>
        <_>
          5 4 3 1 -1.</_>
        <_>
          6 4 1 1 3.</_></rects>
      <tilted>0</tilted></_>
    <_>
      <rects>
        <_>
          5 24 3 3 -1.</_>
        <_>
          4 25 3 1 3.</_></rects>
      <tilted>1</tilted></_>
    <_>
      <rects>
        <_>
          5 26 1 3 -1.</_>
        <_>
          5 27 1 1 3.</_></rects>
      <tilted>0</tilted></_>
    <_>
      <rects>
        <_>
          6 0 6 3 -1.</_>
        <_>
          6 1 6 1 3.</_></rects>
      <tilted>0</tilted></_>
    <_>
      <rects>
        <_>
          6 2 3 4 -1.</_>
        <_>
          7 2 1 4 3.</_></rects>
      <tilted>0</tilted></_>
    <_>
      <rects>
        <_>
          6 3 6 3 -1.</_>
        <_>
          8 3 2 3 3.</_></rects>
      <tilted>0</tilted></_>
    <_>
      <rects>
        <_>
          6 4 3 1 -1.</_>
        <_>
          7 4 1 1 3.</_></rects>
      <tilted>0</tilted></_>
    <_>
      <rects>
        <_>
          6 4 8 1 -1.</_>
        <_>
          8 4 4 1 2.</_></rects>
      <tilted>0</tilted></_>
    <_>
      <rects>
        <_>
          6 18 11 6 -1.</_>
        <_>
          6 20 11 2 3.</_></rects>
      <tilted>0</tilted></_>
    <_>
      <rects>
        <_>
          6 21 3 6 -1.</_>
        <_>
          6 24 3 3 2.</_></rects>
      <tilted>0</tilted></_>
    <_>
      <rects>
        <_>
          6 23 6 6 -1.</_>
        <_>
          6 26 6 3 2.</_></rects>
      <tilted>0</tilted></_>
    <_>
      <rects>
        <_>
          6 26 6 4 -1.</_>
        <_>
          8 26 2 4 3.</_></rects>
      <tilted>0</tilted></_>
    <_>
      <rects>
        <_>
          6 27 7 3 -1.</_>
        <_>
          6 28 7 1 3.</_></rects>
      <tilted>0</tilted></_>
    <_>
      <rects>
        <_>
          7 1 4 4 -1.</_>
        <_>
          7 1 2 2 2.</_>
        <_>
          9 3 2 2 2.</_></rects>
      <tilted>0</tilted></_>
    <_>
      <rects>
        <_>
          7 2 2 5 -1.</_>
        <_>
          7 2 1 5 2.</_></rects>
      <tilted>1</tilted></_>
    <_>
      <rects>
        <_>
          7 2 12 2 -1.</_>
        <_>
          7 3 12 1 2.</_></rects>
      <tilted>0</tilted></_>
    <_>
      <rects>
        <_>
          7 3 6 2 -1.</_>
        <_>
          9 3 2 2 3.</_></rects>
      <tilted>0</tilted></_>
    <_>
      <rects>
        <_>
          7 3 6 3 -1.</_>
        <_>
          9 3 2 3 3.</_></rects>
      <tilted>0</tilted></_>
    <_>
      <rects>
        <_>
          7 4 4 1 -1.</_>
        <_>
          8 4 2 1 2.</_></rects>
      <tilted>0</tilted></_>
    <_>
      <rects>
        <_>
          7 15 13 10 -1.</_>
        <_>
          7 20 13 5 2.</_></rects>
      <tilted>0</tilted></_>
    <_>
      <rects>
        <_>
          7 25 1 2 -1.</_>
        <_>
          7 25 1 1 2.</_></rects>
      <tilted>1</tilted></_>
    <_>
      <rects>
        <_>
          7 26 1 4 -1.</_>
        <_>
          7 27 1 2 2.</_></rects>
      <tilted>0</tilted></_>
    <_>
      <rects>
        <_>
          7 27 5 3 -1.</_>
        <_>
          7 28 5 1 3.</_></rects>
      <tilted>0</tilted></_>
    <_>
      <rects>
        <_>
          7 28 4 2 -1.</_>
        <_>
          8 28 2 2 2.</_></rects>
      <tilted>0</tilted></_>
    <_>
      <rects>
        <_>
          8 0 2 22 -1.</_>
        <_>
          8 11 2 11 2.</_></rects>
      <tilted>0</tilted></_>
    <_>
      <rects>
        <_>
          8 3 4 2 -1.</_>
        <_>
          9 3 2 2 2.</_></rects>
      <tilted>0</tilted></_>
    <_>
      <rects>
        <_>
          8 24 12 5 -1.</_>
        <_>
          14 24 6 5 2.</_></rects>
      <tilted>0</tilted></_>
    <_>
      <rects>
        <_>
          8 26 4 4 -1.</_>
        <_>
          8 26 2 2 2.</_>
        <_>
          10 28 2 2 2.</_></rects>
      <tilted>0</tilted></_>
    <_>
      <rects>
        <_>
          8 27 8 2 -1.</_>
        <_>
          8 27 4 1 2.</_>
        <_>
          12 28 4 1 2.</_></rects>
      <tilted>0</tilted></_>
    <_>
      <rects>
        <_>
          8 28 4 1 -1.</_>
        <_>
          9 28 2 1 2.</_></rects>
      <tilted>0</tilted></_>
    <_>
      <rects>
        <_>
          9 2 6 2 -1.</_>
        <_>
          11 2 2 2 3.</_></rects>
      <tilted>0</tilted></_>
    <_>
      <rects>
        <_>
          9 27 3 3 -1.</_>
        <_>
          10 27 1 3 3.</_></rects>
      <tilted>0</tilted></_>
    <_>
      <rects>
        <_>
          10 0 8 24 -1.</_>
        <_>
          10 12 8 12 2.</_></rects>
      <tilted>0</tilted></_>
    <_>
      <rects>
        <_>
          10 2 3 2 -1.</_>
        <_>
          11 2 1 2 3.</_></rects>
      <tilted>0</tilted></_>
    <_>
      <rects>
        <_>
          10 2 3 4 -1.</_>
        <_>
          11 2 1 4 3.</_></rects>
      <tilted>0</tilted></_>
    <_>
      <rects>
        <_>
          10 3 8 2 -1.</_>
        <_>
          10 4 8 1 2.</_></rects>
      <tilted>0</tilted></_>
    <_>
      <rects>
        <_>
          10 4 4 9 -1.</_>
        <_>
          11 5 2 9 2.</_></rects>
      <tilted>1</tilted></_>
    <_>
      <rects>
        <_>
          10 21 10 7 -1.</_>
        <_>
          15 21 5 7 2.</_></rects>
      <tilted>0</tilted></_>
    <_>
      <rects>
        <_>
          10 27 3 3 -1.</_>
        <_>
          11 27 1 3 3.</_></rects>
      <tilted>0</tilted></_>
    <_>
      <rects>
        <_>
          10 28 1 2 -1.</_>
        <_>
          10 29 1 1 2.</_></rects>
      <tilted>0</tilted></_>
    <_>
      <rects>
        <_>
          11 4 3 1 -1.</_>
        <_>
          12 4 1 1 3.</_></rects>
      <tilted>0</tilted></_>
    <_>
      <rects>
        <_>
          11 12 9 8 -1.</_>
        <_>
          14 12 3 8 3.</_></rects>
      <tilted>0</tilted></_>
    <_>
      <rects>
        <_>
          11 22 5 6 -1.</_>
        <_>
          11 25 5 3 2.</_></rects>
      <tilted>0</tilted></_>
    <_>
      <rects>
        <_>
          12 0 8 8 -1.</_>
        <_>
          16 0 4 8 2.</_></rects>
      <tilted>0</tilted></_>
    <_>
      <rects>
        <_>
          12 1 5 16 -1.</_>
        <_>
          12 9 5 8 2.</_></rects>
      <tilted>0</tilted></_>
    <_>
      <rects>
        <_>
          12 2 8 2 -1.</_>
        <_>
          12 3 8 1 2.</_></rects>
      <tilted>0</tilted></_>
    <_>
      <rects>
        <_>
          12 3 3 1 -1.</_>
        <_>
          13 3 1 1 3.</_></rects>
      <tilted>0</tilted></_>
    <_>
      <rects>
        <_>
          12 4 6 4 -1.</_>
        <_>
          11 5 6 2 2.</_></rects>
      <tilted>1</tilted></_>
    <_>
      <rects>
        <_>
          12 12 8 8 -1.</_>
        <_>
          14 12 4 8 2.</_></rects>
      <tilted>0</tilted></_>
    <_>
      <rects>
        <_>
          12 21 8 9 -1.</_>
        <_>
          16 21 4 9 2.</_></rects>
      <tilted>0</tilted></_>
    <_>
      <rects>
        <_>
          12 27 2 1 -1.</_>
        <_>
          12 27 1 1 2.</_></rects>
      <tilted>1</tilted></_>
    <_>
      <rects>
        <_>
          13 0 2 3 -1.</_>
        <_>
          13 1 2 1 3.</_></rects>
      <tilted>0</tilted></_>
    <_>
      <rects>
        <_>
          13 3 3 2 -1.</_>
        <_>
          14 3 1 2 3.</_></rects>
      <tilted>0</tilted></_>
    <_>
      <rects>
        <_>
          13 4 3 1 -1.</_>
        <_>
          14 4 1 1 3.</_></rects>
      <tilted>0</tilted></_>
    <_>
      <rects>
        <_>
          13 4 4 1 -1.</_>
        <_>
          14 4 2 1 2.</_></rects>
      <tilted>0</tilted></_>
    <_>
      <rects>
        <_>
          13 24 4 2 -1.</_>
        <_>
          13 24 4 1 2.</_></rects>
      <tilted>1</tilted></_>
    <_>
      <rects>
        <_>
          13 26 2 2 -1.</_>
        <_>
          13 26 1 1 2.</_>
        <_>
          14 27 1 1 2.</_></rects>
      <tilted>0</tilted></_>
    <_>
      <rects>
        <_>
          13 26 4 2 -1.</_>
        <_>
          13 26 2 1 2.</_>
        <_>
          15 27 2 1 2.</_></rects>
      <tilted>0</tilted></_>
    <_>
      <rects>
        <_>
          13 28 4 2 -1.</_>
        <_>
          13 28 2 1 2.</_>
        <_>
          15 29 2 1 2.</_></rects>
      <tilted>0</tilted></_>
    <_>
      <rects>
        <_>
          14 0 2 3 -1.</_>
        <_>
          15 0 1 3 2.</_></rects>
      <tilted>0</tilted></_>
    <_>
      <rects>
        <_>
          14 1 6 26 -1.</_>
        <_>
          14 1 3 13 2.</_>
        <_>
          17 14 3 13 2.</_></rects>
      <tilted>0</tilted></_>
    <_>
      <rects>
        <_>
          14 1 4 12 -1.</_>
        <_>
          14 7 4 6 2.</_></rects>
      <tilted>0</tilted></_>
    <_>
      <rects>
        <_>
          14 3 2 2 -1.</_>
        <_>
          14 4 2 1 2.</_></rects>
      <tilted>0</tilted></_>
    <_>
      <rects>
        <_>
          14 3 3 2 -1.</_>
        <_>
          14 4 3 1 2.</_></rects>
      <tilted>0</tilted></_>
    <_>
      <rects>
        <_>
          14 4 2 11 -1.</_>
        <_>
          14 4 1 11 2.</_></rects>
      <tilted>1</tilted></_>
    <_>
      <rects>
        <_>
          14 7 6 18 -1.</_>
        <_>
          17 7 3 18 2.</_></rects>
      <tilted>0</tilted></_>
    <_>
      <rects>
        <_>
          14 20 6 8 -1.</_>
        <_>
          14 20 3 4 2.</_>
        <_>
          17 24 3 4 2.</_></rects>
      <tilted>0</tilted></_>
    <_>
      <rects>
        <_>
          14 22 6 6 -1.</_>
        <_>
          14 22 3 3 2.</_>
        <_>
          17 25 3 3 2.</_></rects>
      <tilted>0</tilted></_>
    <_>
      <rects>
        <_>
          14 26 2 2 -1.</_>
        <_>
          14 26 1 1 2.</_>
        <_>
          15 27 1 1 2.</_></rects>
      <tilted>0</tilted></_>
    <_>
      <rects>
        <_>
          15 0 1 4 -1.</_>
        <_>
          15 1 1 2 2.</_></rects>
      <tilted>0</tilted></_>
    <_>
      <rects>
        <_>
          15 3 4 4 -1.</_>
        <_>
          14 4 4 2 2.</_></rects>
      <tilted>1</tilted></_>
    <_>
      <rects>
        <_>
          15 14 4 4 -1.</_>
        <_>
          16 14 2 4 2.</_></rects>
      <tilted>0</tilted></_>
    <_>
      <rects>
        <_>
          15 18 4 10 -1.</_>
        <_>
          15 18 2 5 2.</_>
        <_>
          17 23 2 5 2.</_></rects>
      <tilted>0</tilted></_>
    <_>
      <rects>
        <_>
          15 19 4 9 -1.</_>
        <_>
          15 22 4 3 3.</_></rects>
      <tilted>0</tilted></_>
    <_>
      <rects>
        <_>
          16 0 2 3 -1.</_>
        <_>
          17 0 1 3 2.</_></rects>
      <tilted>0</tilted></_>
    <_>
      <rects>
        <_>
          16 1 4 3 -1.</_>
        <_>
          18 1 2 3 2.</_></rects>
      <tilted>0</tilted></_>
    <_>
      <rects>
        <_>
          16 9 4 11 -1.</_>
        <_>
          18 9 2 11 2.</_></rects>
      <tilted>0</tilted></_>
    <_>
      <rects>
        <_>
          16 10 4 20 -1.</_>
        <_>
          16 10 2 10 2.</_>
        <_>
          18 20 2 10 2.</_></rects>
      <tilted>0</tilted></_>
    <_>
      <rects>
        <_>
          16 11 3 2 -1.</_>
        <_>
          17 11 1 2 3.</_></rects>
      <tilted>0</tilted></_>
    <_>
      <rects>
        <_>
          16 12 4 3 -1.</_>
        <_>
          18 12 2 3 2.</_></rects>
      <tilted>0</tilted></_>
    <_>
      <rects>
        <_>
          16 15 4 5 -1.</_>
        <_>
          18 15 2 5 2.</_></rects>
      <tilted>0</tilted></_>
    <_>
      <rects>
        <_>
          17 1 3 6 -1.</_>
        <_>
          18 1 1 6 3.</_></rects>
      <tilted>0</tilted></_>
    <_>
      <rects>
        <_>
          17 1 3 13 -1.</_>
        <_>
          18 1 1 13 3.</_></rects>
      <tilted>0</tilted></_>
    <_>
      <rects>
        <_>
          17 1 3 6 -1.</_>
        <_>
          17 4 3 3 2.</_></rects>
      <tilted>0</tilted></_>
    <_>
      <rects>
        <_>
          17 4 3 24 -1.</_>
        <_>
          18 4 1 24 3.</_></rects>
      <tilted>0</tilted></_>
    <_>
      <rects>
        <_>
          17 5 3 16 -1.</_>
        <_>
          18 5 1 16 3.</_></rects>
      <tilted>0</tilted></_>
    <_>
      <rects>
        <_>
          17 5 3 17 -1.</_>
        <_>
          18 5 1 17 3.</_></rects>
      <tilted>0</tilted></_>
    <_>
      <rects>
        <_>
          17 8 3 2 -1.</_>
        <_>
          18 8 1 2 3.</_></rects>
      <tilted>0</tilted></_>
    <_>
      <rects>
        <_>
          17 10 2 6 -1.</_>
        <_>
          18 10 1 6 2.</_></rects>
      <tilted>0</tilted></_>
    <_>
      <rects>
        <_>
          18 1 2 5 -1.</_>
        <_>
          19 1 1 5 2.</_></rects>
      <tilted>0</tilted></_>
    <_>
      <rects>
        <_>
          18 3 2 3 -1.</_>
        <_>
          19 3 1 3 2.</_></rects>
      <tilted>0</tilted></_>
    <_>
      <rects>
        <_>
          18 3 2 6 -1.</_>
        <_>
          18 3 1 3 2.</_>
        <_>
          19 6 1 3 2.</_></rects>
      <tilted>0</tilted></_>
    <_>
      <rects>
        <_>
          18 3 2 8 -1.</_>
        <_>
          18 3 1 4 2.</_>
        <_>
          19 7 1 4 2.</_></rects>
      <tilted>0</tilted></_>
    <_>
      <rects>
        <_>
          18 24 2 5 -1.</_>
        <_>
          19 24 1 5 2.</_></rects>
      <tilted>0</tilted></_>
    <_>
      <rects>
        <_>
          18 26 2 1 -1.</_>
        <_>
          19 26 1 1 2.</_></rects>
      <tilted>0</tilted></_>
    <_>
      <rects>
        <_>
          18 26 2 3 -1.</_>
        <_>
          19 26 1 3 2.</_></rects>
      <tilted>0</tilted></_>
    <_>
      <rects>
        <_>
          18 28 2 1 -1.</_>
        <_>
          19 28 1 1 2.</_></rects>
      <tilted>0</tilted></_>
    <_>
      <rects>
        <_>
          18 29 2 1 -1.</_>
        <_>
          19 29 1 1 2.</_></rects>
      <tilted>0</tilted></_>
    <_>
      <rects>
        <_>
          19 9 1 20 -1.</_>
        <_>
          19 19 1 10 2.</_></rects>
      <tilted>0</tilted></_>
    <_>
      <rects>
        <_>
          19 26 1 3 -1.</_>
        <_>
          19 27 1 1 3.</_></rects>
      <tilted>0</tilted></_></features></cascade>
</opencv_storage>

